<?xml version="1.0"?>
<opencv_storage>
<cascade>
  <stageType>BOOST</stageType>
  <featureType>HAAR</featureType>
  <height>24</height>
  <width>24</width>
  <stageParams>
    <boostType>GAB</boostType>
    <minHitRate>9.9900001287460327e-01</minHitRate>
    <maxFalseAlarm>3.0000001192092896e-01</maxFalseAlarm>
    <weightTrimRate>9.4999999999999996e-01</weightTrimRate>
    <maxDepth>1</maxDepth>
    <maxWeakCount>100</maxWeakCount></stageParams>
  <featureParams>
    <maxCatCount>0</maxCatCount>
    <featSize>1</featSize>
    <mode>BASIC</mode></featureParams>
  <stageNum>7</stageNum>
  <stages>
    <!-- stage 0 -->
    <_>
      <maxWeakCount>2</maxWeakCount>
      <stageThreshold>-1.3630239665508270e-01</stageThreshold>
      <weakClassifiers>
        <_>
          <internalNodes>
            0 -1 7 3.8501184433698654e-02</internalNodes>
          <leafValues>
            -9.8778623342514038e-01 9.0917873382568359e-01</leafValues></_>
        <_>
          <internalNodes>
            0 -1 8 -6.6393405199050903e-02</internalNodes>
          <leafValues>
            8.5148388147354126e-01 -9.7350937128067017e-01</leafValues></_></weakClassifiers></_>
    <!-- stage 1 -->
    <_>
      <maxWeakCount>3</maxWeakCount>
      <stageThreshold>-9.1909062862396240e-01</stageThreshold>
      <weakClassifiers>
        <_>
          <internalNodes>
            0 -1 9 -5.2748415619134903e-02</internalNodes>
          <leafValues>
            6.5371024608612061e-01 -9.3147748708724976e-01</leafValues></_>
        <_>
          <internalNodes>
            0 -1 17 4.7661919146776199e-02</internalNodes>
          <leafValues>
            -7.6688885688781738e-01 8.6689668893814087e-01</leafValues></_>
        <_>
          <internalNodes>
            0 -1 2 -2.5314316153526306e-02</internalNodes>
          <leafValues>
            7.8817123174667358e-01 -8.0591201782226563e-01</leafValues></_></weakClassifiers></_>
    <!-- stage 2 -->
    <_>
      <maxWeakCount>3</maxWeakCount>
      <stageThreshold>-1.1660989522933960e+00</stageThreshold>
      <weakClassifiers>
        <_>
          <internalNodes>
            0 -1 11 -5.3408127278089523e-03</internalNodes>
          <leafValues>
            -8.4069001674652100e-01 6.3848394155502319e-01</leafValues></_>
        <_>
          <internalNodes>
            0 -1 0 -6.4894378185272217e-02</internalNodes>
          <leafValues>
            8.2684803009033203e-01 -7.4480754137039185e-01</leafValues></_>
        <_>
          <internalNodes>
            0 -1 16 -2.4295680224895477e-02</internalNodes>
          <leafValues>
            -9.8665797710418701e-01 4.1939860582351685e-01</leafValues></_></weakClassifiers></_>
    <!-- stage 3 -->
    <_>
      <maxWeakCount>5</maxWeakCount>
      <stageThreshold>-7.1296423673629761e-01</stageThreshold>
      <weakClassifiers>
        <_>
          <internalNodes>
            0 -1 17 5.4788362234830856e-02</internalNodes>
          <leafValues>
            -7.3069852590560913e-01 7.1601939201354980e-01</leafValues></_>
        <_>
          <internalNodes>
            0 -1 18 -6.5975082106888294e-03</internalNodes>
          <leafValues>
            8.2876288890838623e-01 -6.5155422687530518e-01</leafValues></_>
        <_>
          <internalNodes>
            0 -1 4 -9.3077003955841064e-02</internalNodes>
          <leafValues>
            4.9936780333518982e-01 -9.1108149290084839e-01</leafValues></_>
        <_>
          <internalNodes>
            0 -1 11 -4.8381551168859005e-03</internalNodes>
          <leafValues>
            -7.0439875125885010e-01 6.9482886791229248e-01</leafValues></_>
        <_>
          <internalNodes>
            0 -1 21 1.8669102340936661e-02</internalNodes>
          <leafValues>
            -4.7946229577064514e-01 8.7431949377059937e-01</leafValues></_></weakClassifiers></_>
    <!-- stage 4 -->
    <_>
      <maxWeakCount>5</maxWeakCount>
      <stageThreshold>-5.7809501886367798e-01</stageThreshold>
      <weakClassifiers>
        <_>
          <internalNodes>
            0 -1 20 -2.0048327744007111e-02</internalNodes>
          <leafValues>
            6.8883311748504639e-01 -7.0313209295272827e-01</leafValues></_>
        <_>
          <internalNodes>
            0 -1 12 -2.9253033921122551e-02</internalNodes>
          <leafValues>
            7.0743268728256226e-01 -5.5545878410339355e-01</leafValues></_>
        <_>
          <internalNodes>
            0 -1 1 -9.1754093766212463e-02</internalNodes>
          <leafValues>
            7.5877684354782104e-01 -4.8751854896545410e-01</leafValues></_>
        <_>
          <internalNodes>
            0 -1 3 1.1850528419017792e-02</internalNodes>
          <leafValues>
            -4.6962136030197144e-01 7.8591310977935791e-01</leafValues></_>
        <_>
          <internalNodes>
            0 -1 10 7.0201635360717773e-02</internalNodes>
          <leafValues>
            -8.8079017400741577e-01 4.6571677923202515e-01</leafValues></_></weakClassifiers></_>
    <!-- stage 5 -->
    <_>
      <maxWeakCount>4</maxWeakCount>
      <stageThreshold>-5.8808350563049316e-01</stageThreshold>
      <weakClassifiers>
        <_>
          <internalNodes>
            0 -1 15 4.4179826974868774e-02</internalNodes>
          <leafValues>
            -7.3169577121734619e-01 6.2174403667449951e-01</leafValues></_>
        <_>
          <internalNodes>
            0 -1 14 -2.3565811570733786e-03</internalNodes>
          <leafValues>
            7.7905845642089844e-01 -5.4161846637725830e-01</leafValues></_>
        <_>
          <internalNodes>
            0 -1 23 -2.7153451810590923e-05</internalNodes>
          <leafValues>
            -1. 3.7972670793533325e-01</leafValues></_>
        <_>
          <internalNodes>
            0 -1 22 1.6635356587357819e-05</internalNodes>
          <leafValues>
            3.0550405383110046e-01 -1.</leafValues></_></weakClassifiers></_>
    <!-- stage 6 -->
    <_>
      <maxWeakCount>5</maxWeakCount>
      <stageThreshold>-9.6307969093322754e-01</stageThreshold>
      <weakClassifiers>
        <_>
          <internalNodes>
            0 -1 5 2.4229388684034348e-02</internalNodes>
          <leafValues>
            -6.8788141012191772e-01 8.1869685649871826e-01</leafValues></_>
        <_>
          <internalNodes>
            0 -1 23 1.2672236152866390e-05</internalNodes>
          <leafValues>
            3.2639810442924500e-01 -1.</leafValues></_>
        <_>
          <internalNodes>
            0 -1 6 9.1632059775292873e-04</internalNodes>
          <leafValues>
            -7.7693057060241699e-01 5.2040576934814453e-01</leafValues></_>
        <_>
          <internalNodes>
            0 -1 13 1.6099101630970836e-03</internalNodes>
          <leafValues>
            -5.3356969356536865e-01 7.0612484216690063e-01</leafValues></_>
        <_>
          <internalNodes>
            0 -1 19 1.2408792972564697e-02</internalNodes>
          <leafValues>
            -5.3079062700271606e-01 7.2771471738815308e-01</leafValues></_></weakClassifiers></_></stages>
  <features>
    <_>
      <rects>
        <_>
          0 6 8 10 -1.</_>
        <_>
          4 6 4 10 2.</_></rects>
      <tilted>0</tilted></_>
    <_>
      <rects>
        <_>
          0 6 10 11 -1.</_>
        <_>
          5 6 5 11 2.</_></rects>
      <tilted>0</tilted></_>
    <_>
      <rects>
        <_>
          1 11 10 4 -1.</_>
        <_>
          1 11 5 2 2.</_>
        <_>
          6 13 5 2 2.</_></rects>
      <tilted>0</tilted></_>
    <_>
      <rects>
        <_>
          3 11 6 1 -1.</_>
        <_>
          6 11 3 1 2.</_></rects>
      <tilted>0</tilted></_>
    <_>
      <rects>
        <_>
          5 1 2 21 -1.</_>
        <_>
          5 8 2 7 2.</_></rects>
      <tilted>0</tilted></_>
    <_>
      <rects>
        <_>
          5 8 1 16 -1.</_>
        <_>
          5 16 1 8 2.</_></rects>
      <tilted>0</tilted></_>
    <_>
      <rects>
        <_>
          7 4 16 3 -1.</_>
        <_>
          15 4 8 3 2.</_></rects>
      <tilted>0</tilted></_>
    <_>
      <rects>
        <_>
          7 8 9 4 -1.</_>
        <_>
          7 10 9 2 2.</_></rects>
      <tilted>0</tilted></_>
    <_>
      <rects>
        <_>
          7 10 9 6 -1.</_>
        <_>
          7 13 9 3 2.</_></rects>
      <tilted>0</tilted></_>
    <_>
      <rects>
        <_>
          8 6 16 6 -1.</_>
        <_>
          8 6 8 3 2.</_>
        <_>
          16 9 8 3 2.</_></rects>
      <tilted>0</tilted></_>
    <_>
      <rects>
        <_>
          8 9 16 8 -1.</_>
        <_>
          8 9 8 4 2.</_>
        <_>
          16 13 8 4 2.</_></rects>
      <tilted>0</tilted></_>
    <_>
      <rects>
        <_>
          9 8 1 6 -1.</_>
        <_>
          9 10 1 2 2.</_></rects>
      <tilted>0</tilted></_>
    <_>
      <rects>
        <_>
          9 10 2 6 -1.</_>
        <_>
          9 13 2 3 2.</_></rects>
      <tilted>0</tilted></_>
    <_>
      <rects>
        <_>
          10 9 2 1 -1.</_>
        <_>
          11 9 1 1 2.</_></rects>
      <tilted>0</tilted></_>
    <_>
      <rects>
        <_>
          11 9 2 1 -1.</_>
        <_>
          12 9 1 1 2.</_></rects>
      <tilted>0</tilted></_>
    <_>
      <rects>
        <_>
          13 6 10 5 -1.</_>
        <_>
          18 6 5 5 2.</_></rects>
      <tilted>0</tilted></_>
    <_>
      <rects>
        <_>
          13 8 2 6 -1.</_>
        <_>
          13 10 2 2 2.</_></rects>
      <tilted>0</tilted></_>
    <_>
      <rects>
        <_>
          15 6 6 11 -1.</_>
        <_>
          18 6 3 11 2.</_></rects>
      <tilted>0</tilted></_>
    <_>
      <rects>
        <_>
          15 11 4 1 -1.</_>
        <_>
          17 11 2 1 2.</_></rects>
      <tilted>0</tilted></_>
    <_>
      <rects>
        <_>
          15 13 2 8 -1.</_>
        <_>
          15 17 2 4 2.</_></rects>
      <tilted>0</tilted></_>
    <_>
      <rects>
        <_>
          17 0 1 14 -1.</_>
        <_>
          17 7 1 7 2.</_></rects>
      <tilted>0</tilted></_>
    <_>
      <rects>
        <_>
          17 9 1 14 -1.</_>
        <_>
          17 16 1 7 2.</_></rects>
      <tilted>0</tilted></_>
    <_>
      <rects>
        <_>
          21 0 3 16 -1.</_>
        <_>
          21 8 3 8 2.</_></rects>
      <tilted>0</tilted></_>
    <_>
      <rects>
        <_>
          21 5 3 8 -1.</_>
        <_>
          21 9 3 4 2.</_></rects>
      <tilted>0</tilted></_></features></cascade>
</opencv_storage>
